solver_type L2R_L2LOSS_RANKSVM
nr_class 2
nr_feature 210
bias -1
w
0.8454897489519666 
0.2506521410146218 
0.1667323538881478 
-0.02191904907674052 
0.08905795061714428 
0.03439407012800974 
-0.0179855387161315 
-0.01350256619432841 
0.1326037690654304 
0.4962384617840601 
0.06080830611228542 
0.2598159502151323 
0.665300184387645 
0.1467443155117208 
0.1187208793845083 
0.3885983598940327 
0.1335526144452356 
0.2797187004572919 
0.1567185244675035 
0.1687531292529375 
0.04934111307385149 
0.05497514611156344 
0.008314483008486584 
0.04781830836606494 
-0.01022311681511449 
0.008000054379071135 
-0.0114570001900869 
-0.04209465039303156 
-0.1839405530341539 
-0.04928475130957122 
0.01690674606955047 
-0.3927207349353996 
0.07774562451657534 
0.0227643081746543 
0.03458148979885591 
0.0364342352576797 
-0.01406157621728499 
0.01160911295911626 
-0.006799205910505706 
0.03792501567660942 
-0.0602715276110685 
0.02549436169580767 
0.004837050812239617 
-0.03535543567919428 
-0.01578777820753956 
0.1376551994604801 
0.3996158166887527 
0.10883302858402 
0.1509739762622783 
0.3112607031474409 
0.2249061620667734 
0.01768174917456 
0.2119124207698198 
0.03230894986548957 
0.08595012730121393 
0.06406588798534701 
0.05446336244983178 
0.02728383607014839 
0.02729529613554826 
-0.01479332171505098 
0.03591236873965654 
-0.009465017664608185 
0.02836514046427263 
0.03869610566973879 
0.05463759654908718 
-0.01798627883377711 
0.07817487278966617 
-0.01787528230061503 
0.03222558504355025 
0.03778108293487257 
0.02688909148985776 
0.03561102575833852 
0.02946478695382728 
0.03738380685331664 
0.02749015734270348 
-0.01048779077706396 
0.006640942505085255 
0.008589054535514996 
0.01946107252073795 
-0.01575719657968183 
0.04852831352495197 
-0.01857460254346209 
-0.02242716895126857 
-0.001461701184391955 
0.03312578267295453 
0.01791602297597984 
0.03004435619401837 
0.01738803976967269 
0.03026564036950275 
0.01434340723865797 
-0.005503170126481149 
0.02820717710619678 
-0.00220129366466746 
0.005303105882454693 
0.01536481921060664 
0.02475241218126169 
-0.01169267513703471 
0.04886552758749667 
-0.01294559367346423 
0.03174828004255415 
0.03586548458732428 
0.02613615015701413 
0.03330922477988376 
0.02641426593948847 
0.03189340970945434 
-0.007791672474454071 
-0.00265349175931679 
0.007554863640014807 
0.007966038967761688 
0.009863713314634983 
-0.003550431455555578 
0.005052800178976268 
-0.001961723725581395 
-0.007744624993624653 
-0.007405217034793033 
-0.004402854396173017 
-0.003414233847747409 
-0.002728458854717538 
-0.002219682828691297 
0.00749076703053245 
0.00532083034857537 
-0.008185761753049005 
0.03703335461333684 
-0.01784065403113377 
-0.005021116762452277 
0.002320328222164005 
0.03962471352522817 
0.02943948303752711 
0.03580725392014864 
0.02529925313893917 
0.0315135754580341 
0.01713592545084042 
0.003152764433215647 
-0.01472635739982693 
0.008204065862668567 
-0.004512715919362896 
-0.02179163667581643 
-0.005523756135469465 
-0.004080710816522422 
-0.004223762628285257 
-0.001989233677947134 
-0.0005394775775467481 
0.0005747677768037799 
0.001247277631852661 
-0.04160623928737516 
-0.05639100847892579 
0.02815672776768477 
-0.08022596270799856 
0.03424118248407212 
0.0008150155106183129 
-0.05120625257045802 
-0.01939056446676987 
-0.06440179261249035 
-0.02391929234863791 
-0.06963217058263108 
-0.0585106741631681 
0.04472305129172728 
0.06980501436149458 
0.07794776565883865 
0.00348888377613335 
-0.00503426035438733 
-0.02127586651974529 
-0.0168187879057505 
-0.02065002721773825 
-0.04266107627248421 
0.03133265796972303 
-0.08209271471780692 
0.02658375259623615 
0.02991183801531161 
-0.03415083846267246 
0.009052057540785127 
-0.03766963073239852 
-0.007231438016332616 
-0.05708007285417334 
0.0399609863845248 
0.02788747842253134 
-0.01033492144370719 
-0.02829258885671798 
-0.01959359251764476 
-0.04049420678490419 
-0.01113648298309285 
-0.02866576376707801 
0.01242759153911638 
0.05336150611330429 
0.02286269584768838 
0.02149765881975732 
0.008580094812483783 
0.01063216204814063 
-0.04405423956172114 
-0.02102024185634479 
-0.06727222372030567 
-0.02526125879386626 
-0.07632462881649041 
-0.01526752153431864 
-0.05080871553271055 
-0.01057949797722848 
0.001947124710496568 
-0.004093012206668219 
0.007725544127672581 
-0.004581794321001086 
0.003451703373636495 
0.0865978706642106 
0.008055501618372518 
0.05337634426316355 
0.003762664600830907 
0.0137587635489981 
-0.001213376267768118 
0.007173247452713027 
0.03447621192700096 
-0.002873210791539507 
