solver_type L2R_L2LOSS_RANKSVM
nr_class 2
nr_feature 210
bias -1
w
0.8930601026634043 
0.2266802908478266 
0.1443405087327884 
0.01875284247665326 
0.0939764504660052 
0.004023759842178977 
0.02940572113630322 
-0.02382246954124937 
0.1060062337138172 
0.5635026859803183 
0.04013402011510679 
0.1756460124479434 
0.697915440792936 
0.03650418904734061 
0.0378623566597415 
0.4680013538555216 
0.1361630359053928 
0.3601048846521378 
0.1063401689307345 
0.1455394426806275 
-0.01597217487747685 
0.04166162824618458 
0.01370527376384115 
0.04373487572196091 
-0.01826598781714222 
0.02499839341864135 
-0.01632129973921488 
-0.05101805947430137 
-0.09653689234585204 
-0.06670631904351029 
-0.01075027215989348 
-0.1981530353737813 
0.04032317406507213 
0.04008319798015464 
0.1263411206118065 
0.05655109236672625 
0.0932043155655259 
0.02360608375167414 
0.04972435644200392 
0.06104608620421885 
0.002464639443853682 
0.05685836071405981 
-0.01240367167671946 
-0.002867151039072959 
0.002964785724495353 
0.1513938540199719 
0.389872750999698 
0.1240200715612103 
0.1267293715068898 
0.3449600431191017 
0.1911012053226589 
0.05620392670404688 
0.2182420055632928 
0.08690381348914987 
0.1183328802864537 
0.06090013195981258 
0.0150248211411427 
0.02798156250394244 
0.02288194363624326 
-0.01399657188231392 
0.03603264625368489 
-0.009482213313096762 
0.006974470413798208 
0.01274615713656418 
0.03408328085807093 
-0.01420166545249264 
0.05675184885981861 
-0.01824049758832351 
0.02237132311857757 
0.02352262942750443 
0.02171822496012805 
0.02057818909587198 
0.01738035834790429 
0.01822428847353698 
0.02470014593464508 
-0.005876945211473708 
0.01038853067304196 
0.00115487920505385 
-0.00935060454634574 
-0.02954836711460947 
0.01234762174323679 
-0.01209036883419953 
-0.02514310790034049 
-0.005477574738256324 
0.01781517479756829 
0.01047241683531978 
0.01760514811835608 
0.005271665649045627 
0.01652994416738588 
-0.002906890244861896 
-0.01088845140818001 
0.02767588798714489 
-0.009872789474193473 
-0.01273260174167434 
-0.00880381759793528 
0.01107408760770035 
-0.009740790872318959 
0.03629131815440523 
-0.01025321951650138 
0.02000698071967903 
0.02614885409711756 
0.02517337857138824 
0.02233537262933325 
0.01998126874458563 
0.01573478917871699 
-0.006229032070192029 
0.005302188676045715 
0.003506626790729469 
0.006109380750895425 
0.004210438808529388 
-0.001010153598473015 
0.0004731155519447243 
-0.002535182912687122 
-0.005795215208645657 
-0.009993581386346595 
-0.009116627898800033 
-0.007142813248404913 
-0.008855807127550961 
-0.005315857103171655 
0.0006472798889099042 
-0.016648198575958 
-0.0268005291309108 
0.008994306350490033 
-0.01153093312123912 
-0.009073193460224751 
-0.004516700203247991 
0.02064687162359359 
0.02809478533135511 
0.02592037590356311 
0.02335708207159729 
0.02267284664577328 
0.008411703767000827 
-0.002902063500125996 
-0.005133659232390902 
-0.005380904258413735 
0.001223269045974604 
-0.01634712854960307 
0.002156327298949417 
-0.00706826234784644 
-0.01498943165563577 
-0.01100384801277172 
-0.01419628411000752 
-0.01046039871844498 
-0.01201600431396264 
-0.06340594619442003 
-0.03876377812412355 
0.004510611702015058 
-0.06787746832474072 
0.01815375788486707 
-0.01690484860215414 
-0.03453704957956625 
-0.007813225276171093 
-0.02224613917225773 
-0.01502943224022228 
-0.04752236772815256 
-0.05699872050473401 
0.03540958915388907 
0.08040488538492704 
0.1015048008047042 
-0.008237689127568747 
0.003338595477348914 
-0.009712806976871881 
-0.001136075139861067 
-0.02118378032513836 
-0.04577873674175338 
0.02580996580919759 
-0.08184025984959628 
0.03816071468221856 
0.004080574963763199 
0.009508150711035415 
0.01170217167836333 
0.01549195350383064 
-0.007784342440431857 
-0.03449050331116695 
0.05355119663666506 
-0.001248927313192687 
-0.005231597721485386 
-0.03670538809587289 
-0.008655302456268018 
-0.02908236360725325 
-0.0004714008048622657 
-0.01785222055607656 
0.07001284608704643 
0.03787483815791085 
0.05532076488812748 
0.03195701897634505 
0.03423088966317676 
0.01342638902170254 
-0.05366138879834476 
-0.002319427174290049 
-0.07059821853414777 
-0.004233070676498467 
-0.07116374088203578 
0.001513884791884311 
-0.05264324113716874 
-4.408395868365448e-05 
-0.02207000958700464 
0.001339212586941634 
-0.01643409084688423 
-0.00888831897097481 
0.02472328533235783 
0.0818381311087668 
0.02870507418779606 
0.04255406404046785 
0.01812962320526062 
-0.004286208553768831 
0.007622655732580227 
0.01737429247693199 
0.04110940498047946 
0.005236985105912089 
