solver_type L2R_L2LOSS_RANKSVM
nr_class 2
nr_feature 210
bias -1
w
0.8866519495569687 
0.3092572131461452 
0.2543010114420768 
0.05598506037292188 
0.08934833459859592 
0.0676091069173005 
0.03232084202591436 
0.1353269373121685 
0.2520073454193127 
0.4120021163783832 
0.09745166172985084 
0.1638125956497208 
0.6600556632018271 
0.1105854277332078 
0.2430793840916548 
0.6301841215515757 
0.2803710039109131 
0.6922998327626219 
0.3257266948255395 
0.6142744240966516 
-0.09592958645464872 
0.006724539248127825 
-0.07177913140234321 
0.1073081010325686 
-0.04114135232195242 
-0.002400456217641331 
0.01863531637048193 
-0.04385087641965028 
-0.03355274416284427 
-0.07597502881519638 
-0.09656289520715 
-0.03654745616684139 
-0.06083123825356385 
-0.09141732645566635 
-0.1342810659504313 
-0.03232767629334776 
-0.06949846490660175 
0.02955113722284448 
-0.01059227408421212 
0.03356738339018207 
-0.1195050327748602 
-0.0478927054958433 
0.02205022433006071 
-0.06854485838089233 
0.04016311369993013 
0.03427523768730542 
-0.03114746520364905 
-0.08558873007211884 
0.04594563352789627 
0.1825163588291487 
-0.03196118457504876 
-0.0007473681710436081 
0.1731135581715908 
-0.006144134354238971 
0.1477236593316691 
-0.005374456165582882 
0.0599117039819277 
-0.06149450541846131 
0.038339376744826 
-0.02865853612791583 
0.00348616747421553 
-0.03025153054058251 
0.01137491118642382 
-0.02309150194085073 
0.01177399571768036 
-0.008631390886146006 
-0.03128216998223729 
-0.02744434771513173 
-0.04522972678263446 
-0.05218701525038068 
-0.03693954791049765 
-0.04254902220684244 
-0.02359139520706485 
-0.05316572915681008 
-0.01306014919659678 
-0.03605952547699853 
-0.0398078380143833 
-0.02956584829204589 
-0.0548572113858229 
-0.1272190288195898 
-0.07023975935439664 
-0.007713065121114825 
-0.1847501432948145 
-0.01277756575787265 
-0.08721268583072735 
-0.06520779708165937 
-0.07737683652149339 
-0.0772522493877477 
-0.07436569879833831 
-0.1146547066912062 
0.01150550501961892 
-0.01185481412664422 
0.02409095675492804 
0.009166972099138455 
-0.02022468419756157 
-0.04382510392014032 
0.03975346093592645 
-0.07032548207443937 
0.0221478818046829 
-0.0540734104477598 
-0.06727074528360862 
-0.05340020271525531 
-0.05206675514842576 
-0.01254979482836762 
-0.03037183740097693 
-0.02509838121784371 
-0.06646480663552316 
-0.002200739632340805 
-0.05481599804912196 
0.01529430719264337 
-0.02558391682097439 
-0.08455826854319469 
-0.05531784981173866 
-0.02241405445057203 
-0.03744246897142692 
-0.04138519843995464 
-0.0580417603599248 
-0.04275108418645048 
-0.07331090830771619 
0.0003586826124077208 
-0.04553639234985579 
-0.06834240247563128 
-0.109937492327627 
0.02237959983504875 
-0.09281772651496292 
0.006333279598685135 
-0.09287024144588416 
-0.01809576264729124 
-0.08937433970518659 
-0.01557188675605554 
-0.06573750823617282 
-0.03386755909160863 
-0.007957361151512236 
-0.09057792943961575 
0.0137525879858334 
-0.05205668117736303 
-0.1479422676825798 
-0.06464221191182556 
-0.02195400037124738 
-0.07777190300125433 
-0.03191827332121408 
-0.09150490892713692 
-0.03350325849346986 
-0.09224000057762317 
-0.0238426380742942 
-0.01814097280933637 
-0.002572388561848974 
-0.05002045849562903 
-0.02467671120928002 
-0.02935506713122091 
-0.01869921654606983 
-0.02183511662176101 
-0.004178896101458685 
0.0105307265753259 
0.007662351403368149 
-0.03943519285292277 
-0.05248831349997971 
0.1541452489677559 
-0.08811898448807814 
-0.0338963896666316 
-0.003141971794589233 
-0.01198151256402066 
0.01799837216058831 
0.03498475235590257 
0.02798380322792459 
0.01792728879973526 
-0.04501652038706962 
-0.00636734431095639 
-0.04528109462262295 
-0.0481412952985175 
-0.03438621270297282 
-0.027779578490437 
0.03684741529808031 
0.02897266183391017 
-0.06184869391546768 
-0.0581750629648982 
0.00216844900671663 
0.01146534219455234 
0.001827099520893845 
0.006163376950146705 
-0.01908509781057226 
-0.0272503412219616 
-0.1312391593236726 
-0.07428783308189423 
0.001789299113404327 
-0.05442593186089464 
0.03803364523696878 
0.02076439938722378 
0.06679881021709223 
-0.005356202322783082 
-0.03195571295427414 
-0.008361087266400204 
-0.02449695349564552 
-0.02592661868840952 
-0.03425616078594485 
-0.07071542508564703 
-0.0349307347326667 
-0.05125575087715579 
-0.05262818080558911 
-0.06692489689940502 
-0.07588075238371558 
0.05590033191377486 
-0.08442283780274351 
-0.00280063426923925 
-0.06964882882897834 
-0.04081535888857017 
-0.07639739432813175 
-0.07503298831598407 
-0.02337129345569319 
-0.05759516371744831 
